2.556638792157173157e-02,1.947966217994689941e-02,2.594244666397571564e-02,-2.827165462076663971e-02,1.356838084757328033e-02,1.937326043844223022e-02,1.804177276790142059e-02,-2.786140888929367065e-02,2.589970827102661133e-03,2.382015436887741089e-02,-2.650196664035320282e-02,2.043856075033545494e-03,-5.236074328422546387e-02,-1.142994500696659088e-02,-3.576820343732833862e-02,-1.719526387751102448e-02,-2.836015075445175171e-02,-6.275709252804517746e-03,-4.631651565432548523e-03,3.014654852449893951e-02,-1.757964491844177246e-02,1.395355444401502609e-02,1.667950116097927094e-02,2.146110869944095612e-02,-2.689615823328495026e-02,-1.207794528454542160e-02,8.365294896066188812e-03,-1.429386716336011887e-02,-4.338839557021856308e-03,-2.157642692327499390e-02,-3.570448607206344604e-02,1.041589956730604172e-02,-4.235620424151420593e-02,-2.413059584796428680e-02,-5.814585462212562561e-02,-8.673038333654403687e-02,-1.403223872184753418e-01,-1.498989760875701904e-01,-1.472763270139694214e-01,-1.330716460943222046e-01,-1.116948649287223816e-01,-2.110302299261093140e-01,-2.212881147861480713e-01,-2.042851895093917847e-01,-1.527441442012786865e-01,-1.337862610816955566e-01,-1.926884055137634277e-01,-1.814764887094497681e-01,-1.147084608674049377e-01,-1.203707233071327209e-01,-9.747727215290069580e-02,-2.735060825943946838e-02,-7.710227277129888535e-03,-1.390533428639173508e-02,2.897023782134056091e-02,2.972098812460899353e-02,2.198802772909402847e-03,-2.105903252959251404e-02,-2.851243875920772552e-02,5.395524203777313232e-02,-4.553070291876792908e-02,-6.073514744639396667e-02,-7.052002847194671631e-02,-1.154410690069198608e-01,-2.478832304477691650e-01,-2.466567307710647583e-01,-2.998527884483337402e-01,-2.809442877769470215e-01,-3.074181377887725830e-01,-2.866992950439453125e-01,-3.071779310703277588e-01,-2.691622972488403320e-01,-2.969029843807220459e-01,-2.795470356941223145e-01,-2.768951952457427979e-01,-2.849169075489044189e-01,-3.024020791053771973e-01,-2.723674178123474121e-01,-2.101473063230514526e-01,-1.462503671646118164e-01,-9.606774896383285522e-02,-8.510572463274002075e-02,-1.742694340646266937e-02,-1.771603361703455448e-03,1.321840751916170120e-02,2.855242788791656494e-02,-3.645257279276847839e-02,3.452555090188980103e-02,2.397364564239978790e-02,-1.032200548797845840e-02,-1.058825850486755371e-01,-2.446618974208831787e-01,-2.662281095981597900e-01,-2.988849580287933350e-01,-2.920092642307281494e-01,-3.080186545848846436e-01,-3.013701140880584717e-01,-2.844308018684387207e-01,-3.128287792205810547e-01,-2.746770679950714111e-01,-2.712884843349456787e-01,-2.641569674015045166e-01,-2.781561911106109619e-01,-2.755072712898254395e-01,-2.383375763893127441e-01,-2.393539249897003174e-01,-1.764477491378784180e-01,-1.413825601339340210e-01,-8.361490815877914429e-02,-7.948999851942062378e-02,-5.594272911548614502e-02,1.212315983138978481e-03,2.445784769952297211e-02,-2.594944648444652557e-02,-6.708475202322006226e-02,2.285875752568244934e-02,-1.038545146584510803e-01,-2.037734240293502808e-01,-2.312899231910705566e-01,-2.353814542293548584e-01,-2.581098079681396484e-01,-2.953827679157257080e-01,-2.597192823886871338e-01,-1.983994245529174805e-01,-1.255143135786056519e-01,7.711765170097351074e-02,1.708805561065673828e-01,2.636677324771881104e-01,2.492978125810623169e-01,2.431258708238601685e-01,2.321688681840896606e-01,2.341263890266418457e-01,2.176990061998367310e-01,1.293967515230178833e-01,-5.579889193177223206e-02,-2.526103258132934570e-01,-2.437330484390258789e-01,-1.935491859912872314e-01,-1.171357408165931702e-01,-3.686275705695152283e-02,2.749116159975528717e-02,2.212469093501567841e-02,-6.133225560188293457e-02,-5.131075903773307800e-02,-2.545573711395263672e-01,-2.575884163379669189e-01,-2.791070640087127686e-01,-2.941194176673889160e-01,-2.646573781967163086e-01,-2.633916437625885010e-01,-2.079692333936691284e-01,-4.476165398955345154e-02,1.851952224969863892e-01,2.452041208744049072e-01,2.471367567777633667e-01,2.610848844051361084e-01,2.738514244556427002e-01,3.109258115291595459e-01,3.091354370117187500e-01,3.012540042400360107e-01,2.306843400001525879e-01,2.394643276929855347e-01,1.678119041025638580e-02,-2.189139574766159058e-01,-2.568717002868652344e-01,-3.061212599277496338e-01,-2.189944535493850708e-01,-7.220802456140518188e-02,-1.403523376211524010e-03,1.675851829349994659e-02,-8.469711244106292725e-02,-2.229855060577392578e-01,-2.766287624835968018e-01,-2.694765627384185791e-01,-2.515948712825775146e-01,-2.907540798187255859e-01,-2.979908883571624756e-01,-2.571801245212554932e-01,-1.228092312812805176e-01,1.636654436588287354e-01,2.516102790832519531e-01,2.325710058212280273e-01,2.524026632308959961e-01,3.110116422176361084e-01,3.121003806591033936e-01,2.565667629241943359e-01,2.508159875869750977e-01,2.957931160926818848e-01,2.636842429637908936e-01,2.324257344007492065e-01,2.545702159404754639e-01,-1.332928985357284546e-01,-2.869862020015716553e-01,-3.114156424999237061e-01,-2.192855924367904663e-01,-5.228715389966964722e-02,-1.743192970752716064e-02,-8.620576560497283936e-02,-1.492403894662857056e-01,-2.901445031166076660e-01,-2.976729571819305420e-01,-2.532150149345397949e-01,-2.585099935531616211e-01,-2.636922597885131836e-01,-2.646398544311523438e-01,-1.164393946528434753e-01,1.934417635202407837e-01,2.216565459966659546e-01,2.385273426771163940e-01,2.790652215480804443e-01,2.567605674266815186e-01,2.337080389261245728e-01,2.399957627058029175e-01,2.688192129135131836e-01,2.779782414436340332e-01,2.798011898994445801e-01,2.656254470348358154e-01,2.501196861267089844e-01,3.031855225563049316e-01,1.896728128194808960e-01,-2.443462163209915161e-01,-2.871121764183044434e-01,-2.194933891296386719e-01,-4.726530238986015320e-02,2.818313241004943848e-02,-1.461978554725646973e-01,-2.322563380002975464e-01,-2.805449962615966797e-01,-3.083157837390899658e-01,-2.720163762569427490e-01,-2.557001411914825439e-01,-2.745756804943084717e-01,-6.342788785696029663e-02,1.585649847984313965e-01,2.629693150520324707e-01,2.458463311195373535e-01,2.689478099346160889e-01,2.910012900829315186e-01,2.514838278293609619e-01,2.772671580314636230e-01,2.731706202030181885e-01,2.786813974380493164e-01,2.800804376602172852e-01,2.593537569046020508e-01,2.566211819648742676e-01,2.824946939945220947e-01,2.963545024394989014e-01,2.560136616230010986e-01,-2.956258133053779602e-03,-2.767905890941619873e-01,-2.435957938432693481e-01,-1.222115531563758850e-01,-7.508693728595972061e-03,-1.365454196929931641e-01,-2.585572898387908936e-01,-3.052423596382141113e-01,-2.935955226421356201e-01,-3.086983561515808105e-01,-2.397811561822891235e-01,2.153855189681053162e-02,2.541772723197937012e-01,2.562804818153381348e-01,2.611618340015411377e-01,3.045597374439239502e-01,3.080772161483764648e-01,2.905369102954864502e-01,2.496796399354934692e-01,1.479434967041015625e-01,-7.751403748989105225e-02,-1.417571604251861572e-01,1.782549172639846802e-01,2.665112018585205078e-01,2.588945031166076660e-01,2.864944934844970703e-01,2.900312542915344238e-01,3.078184127807617188e-01,2.494417130947113037e-01,-3.070771396160125732e-01,-2.147372961044311523e-01,-1.128402575850486755e-01,-6.917737424373626709e-02,-1.602491289377212524e-01,-2.302420139312744141e-01,-3.173939585685729980e-01,-3.167901039123535156e-01,-1.858532726764678955e-01,1.893929988145828247e-01,2.826445698738098145e-01,2.661898434162139893e-01,2.820463180541992188e-01,2.753521502017974854e-01,3.138512074947357178e-01,3.073697090148925781e-01,2.689095735549926758e-01,1.074768602848052979e-01,-2.854843735694885254e-01,-2.893827855587005615e-01,-3.036326766014099121e-01,-2.149344682693481445e-01,2.319040894508361816e-01,2.581627964973449707e-01,3.130567371845245361e-01,2.590529620647430420e-01,3.176865577697753906e-01,2.433714419603347778e-01,-2.289232462644577026e-01,-2.009678781032562256e-01,-6.251426786184310913e-02,-3.052203543484210968e-02,-1.433399319648742676e-01,-2.444245517253875732e-01,-2.941425740718841553e-01,-2.305487990379333496e-01,2.085364758968353271e-01,2.894305586814880371e-01,2.532288730144500732e-01,3.043212294578552246e-01,3.078048527240753174e-01,2.984313368797302246e-01,2.931863069534301758e-01,2.811665534973144531e-01,5.635876953601837158e-02,-2.782432436943054199e-01,-2.847745120525360107e-01,-3.218477368354797363e-01,-3.314308822154998779e-01,-3.288752138614654541e-01,2.376616448163986206e-01,3.150887191295623779e-01,2.627506852149963379e-01,3.202261626720428467e-01,2.997821569442749023e-01,3.106668591499328613e-01,-1.507324166595935822e-02,-9.048128873109817505e-02,-9.384810924530029297e-02,-7.316126488149166107e-03,-1.402112692594528198e-01,-2.006523609161376953e-01,-2.868019044399261475e-01,-9.154049679636955261e-03,2.951734960079193115e-01,2.720110416412353516e-01,2.607421576976776123e-01,2.861533463001251221e-01,3.163302540779113770e-01,2.653143107891082764e-01,2.414273619651794434e-01,-9.129405766725540161e-02,-2.629616558551788330e-01,-2.967775464057922363e-01,-2.872714102268218994e-01,-3.123873472213745117e-01,-3.245758712291717529e-01,-2.873695492744445801e-01,1.474040597677230835e-01,2.991152703762054443e-01,3.293515741825103760e-01,3.076994121074676514e-01,2.713367938995361328e-01,3.107630610466003418e-01,8.529158681631088257e-02,-1.060771718621253967e-01,-1.035588830709457397e-01,-4.459998384118080139e-02,-3.489635884761810303e-02,-1.361574083566665649e-01,-1.873330473899841309e-01,1.441536247730255127e-01,3.053456544876098633e-01,2.833557128906250000e-01,2.665043175220489502e-01,3.045529425144195557e-01,2.851732373237609863e-01,2.758552432060241699e-01,-1.276715099811553955e-01,-2.733408808708190918e-01,-3.295640051364898682e-01,-2.812640964984893799e-01,-2.879375815391540527e-01,-3.164475262165069580e-01,-2.821997404098510742e-01,-2.896309792995452881e-01,1.590767949819564819e-01,2.587662041187286377e-01,2.859696745872497559e-01,2.879045903682708740e-01,2.820833623409271240e-01,2.734420001506805420e-01,1.058297827839851379e-01,-1.638103425502777100e-01,-6.141482293605804443e-02,-3.615178912878036499e-02,-2.264572679996490479e-02,-1.103639751672744751e-01,-2.381118834018707275e-01,2.321889698505401611e-01,3.232986032962799072e-01,3.118774890899658203e-01,2.892288863658905029e-01,2.684406340122222900e-01,3.155516982078552246e-01,1.453057229518890381e-01,-3.219370543956756592e-01,-2.746451795101165771e-01,-2.706654965877532959e-01,-2.924731373786926270e-01,-2.935293614864349365e-01,-3.121719956398010254e-01,-3.240421116352081299e-01,-2.705779075622558594e-01,1.940304785966873169e-01,3.010932505130767822e-01,3.075236976146697998e-01,2.590833902359008789e-01,2.700525522232055664e-01,2.958224713802337646e-01,1.131600216031074524e-01,-1.637871414422988892e-01,-2.238369733095169067e-02,1.435850467532873154e-02,-3.777229785919189453e-02,-1.404108107089996338e-01,-2.517721652984619141e-01,2.871039807796478271e-01,3.153108060359954834e-01,2.829852402210235596e-01,2.598027884960174561e-01,2.966948449611663818e-01,2.911459505558013916e-01,-2.115629166364669800e-01,-3.327142298221588135e-01,-2.740234136581420898e-01,-3.167417347431182861e-01,-3.024943172931671143e-01,-2.733936011791229248e-01,-3.142761588096618652e-01,-3.125632703304290771e-01,-2.961268424987792969e-01,2.330998629331588745e-01,2.754369378089904785e-01,2.997723221778869629e-01,2.635461986064910889e-01,3.108276128768920898e-01,2.640781700611114502e-01,6.042919587343931198e-03,-2.315872609615325928e-01,-8.512479066848754883e-02,1.277983188629150391e-02,-1.966647617518901825e-02,-1.770945936441421509e-01,-2.056580483913421631e-01,2.706880271434783936e-01,3.009594082832336426e-01,3.228011727333068848e-01,2.626852393150329590e-01,2.909099757671356201e-01,2.892232835292816162e-01,-2.492684870958328247e-01,-2.959581911563873291e-01,-2.673350274562835693e-01,-2.996087968349456787e-01,-3.238074183464050293e-01,-2.856469750404357910e-01,-2.774501442909240723e-01,-2.974264025688171387e-01,-4.874007403850555420e-02,3.020977675914764404e-01,2.722605466842651367e-01,2.634979188442230225e-01,3.123225569725036621e-01,3.051582574844360352e-01,2.701427042484283447e-01,-1.062600687146186829e-01,-1.783673167228698730e-01,-2.933289669454097748e-02,1.811154931783676147e-02,-9.582766145467758179e-02,-1.522870510816574097e-01,-2.121189385652542114e-01,2.502182424068450928e-01,2.764634191989898682e-01,3.236739337444305420e-01,2.806432545185089111e-01,2.826652228832244873e-01,2.596133053302764893e-01,-2.346116304397583008e-01,-2.886063158512115479e-01,-2.884207963943481445e-01,-3.172628879547119141e-01,-3.179146349430084229e-01,-2.768373191356658936e-01,-2.942219376564025879e-01,-2.762697935104370117e-01,2.319202721118927002e-01,2.969600856304168701e-01,2.603798210620880127e-01,3.255633711814880371e-01,3.124130070209503174e-01,2.659139633178710938e-01,2.202384322881698608e-01,-2.158567160367965698e-01,-2.077815532684326172e-01,-1.211673766374588013e-02,-1.130953524261713028e-02,-1.662648841738700867e-02,-2.472555041313171387e-01,-2.418292164802551270e-01,2.820355892181396484e-01,2.767761945724487305e-01,3.234119415283203125e-01,2.655321657657623291e-01,2.849721014499664307e-01,2.821435034275054932e-01,-1.757192462682723999e-01,-3.258769512176513672e-01,-2.923884689807891846e-01,-2.738940417766571045e-01,-2.695412933826446533e-01,-3.190751075744628906e-01,-2.430889904499053955e-01,1.903014928102493286e-01,2.859824299812316895e-01,2.838232517242431641e-01,2.879018485546112061e-01,2.868687808513641357e-01,2.747976183891296387e-01,2.830807566642761230e-01,1.756748259067535400e-01,-2.602870762348175049e-01,-1.786876171827316284e-01,-9.427382051944732666e-02,-2.112552896142005920e-02,-2.330283634364604950e-02,-1.927620917558670044e-01,-2.420085966587066650e-01,2.710453569889068604e-01,2.720902264118194580e-01,3.195455670356750488e-01,3.142813444137573242e-01,2.588320374488830566e-01,3.231826722621917725e-01,2.198122590780258179e-01,-2.436643093824386597e-01,-3.062381744384765625e-01,-3.026601672172546387e-01,-3.118386268615722656e-01,-1.961056143045425415e-01,2.232585698366165161e-01,2.459713369607925415e-01,2.594718039035797119e-01,3.023251891136169434e-01,2.650758624076843262e-01,3.085946738719940186e-01,2.609663903713226318e-01,1.989382654428482056e-01,-1.355555951595306396e-01,-2.795122265815734863e-01,-2.187130600214004517e-01,-2.681037597358226776e-02,2.440435998141765594e-02,5.029001273214817047e-03,-1.906013190746307373e-01,-2.385911941528320312e-01,2.604640722274780273e-01,2.545070052146911621e-01,2.837710082530975342e-01,2.904009819030761719e-01,3.067091405391693115e-01,2.560415863990783691e-01,3.052625358104705811e-01,2.729580104351043701e-01,1.613981127738952637e-01,5.477552115917205811e-02,1.412179023027420044e-01,2.547995448112487793e-01,2.993025779724121094e-01,2.786999642848968506e-01,3.153162002563476562e-01,2.926739752292633057e-01,2.901984155178070068e-01,2.320064753293991089e-01,1.420853286981582642e-01,-1.397113800048828125e-01,-2.475577592849731445e-01,-2.420347034931182861e-01,-1.157230958342552185e-01,-2.072979509830474854e-02,-4.207982867956161499e-02,-6.418699026107788086e-02,-2.543405890464782715e-01,-2.491891980171203613e-01,1.999160051345825195e-01,2.794184982776641846e-01,2.579222917556762695e-01,3.013316988945007324e-01,3.256351947784423828e-01,3.027963936328887939e-01,3.070132434368133545e-01,2.943142056465148926e-01,2.443519979715347290e-01,2.903407514095306396e-01,2.976785004138946533e-01,2.751628458499908447e-01,2.414567619562149048e-01,2.651890814304351807e-01,2.530915141105651855e-01,2.658647596836090088e-01,2.685583531856536865e-01,7.512798160314559937e-02,-1.834158599376678467e-01,-2.267760485410690308e-01,-2.903743982315063477e-01,-2.345672845840454102e-01,-2.063753083348274231e-02,-6.092295981943607330e-03,-4.027138277888298035e-02,-5.590302124619483948e-02,-2.367736846208572388e-01,-2.650716304779052734e-01,2.627917379140853882e-02,2.640715539455413818e-01,2.881133258342742920e-01,2.679128348827362061e-01,3.200224339962005615e-01,3.085905909538269043e-01,2.629637420177459717e-01,2.619284093379974365e-01,2.714923918247222900e-01,2.707734107971191406e-01,3.029156327247619629e-01,2.472816705703735352e-01,2.988240718841552734e-01,2.426353842020034790e-01,1.913752555847167969e-01,1.217747852206230164e-01,-1.117965877056121826e-01,-1.996448934078216553e-01,-2.459171414375305176e-01,-2.887577414512634277e-01,-2.773318886756896973e-01,-1.509063392877578735e-01,9.290213696658611298e-03,6.413093954324722290e-02,1.310573332011699677e-02,3.030540049076080322e-02,-1.834190040826797485e-01,-2.520334124565124512e-01,-2.044639587402343750e-01,5.009670183062553406e-02,1.787637770175933838e-01,2.712920308113098145e-01,2.866730093955993652e-01,2.519174814224243164e-01,2.767457664012908936e-01,2.640827894210815430e-01,2.472594082355499268e-01,2.313509434461593628e-01,2.142784446477890015e-01,1.550610512495040894e-01,6.242570281028747559e-02,-1.053777486085891724e-01,-2.583696246147155762e-01,-2.913388907909393311e-01,-2.931016385555267334e-01,-2.960045635700225830e-01,-2.693017423152923584e-01,-2.103995978832244873e-01,-1.206606104969978333e-01,-6.391414999961853027e-02,-4.265087470412254333e-02,2.661382779479026794e-02,-1.801570877432823181e-02,2.071804367005825043e-02,-9.633208066225051880e-02,-1.923084855079650879e-01,-2.120316773653030396e-01,-2.345363199710845947e-01,-2.095912098884582520e-01,-2.501049041748046875e-01,-2.549118697643280029e-01,-2.287077158689498901e-01,-2.522017657756805420e-01,-2.846243381500244141e-01,-2.561082541942596436e-01,-2.561949789524078369e-01,-2.636464536190032959e-01,-2.858309149742126465e-01,-3.228449523448944092e-01,-3.226522505283355713e-01,-3.037277758121490479e-01,-2.732318043708801270e-01,-3.109178841114044189e-01,-3.085232079029083252e-01,-2.861220836639404297e-01,-2.126958519220352173e-01,-1.621626913547515869e-01,-9.475870989263057709e-03,-4.848650842905044556e-02,-3.477323055267333984e-02,-2.690297551453113556e-02,-2.564381435513496399e-02,-1.929021812975406647e-02,-1.188126355409622192e-01,-1.818950325250625610e-01,-2.546052634716033936e-01,-2.605741620063781738e-01,-2.755935788154602051e-01,-2.929665446281433105e-01,-2.840864658355712891e-01,-3.015510737895965576e-01,-2.695787549018859863e-01,-2.680768370628356934e-01,-3.180407583713531494e-01,-3.307626843452453613e-01,-2.692660987377166748e-01,-2.747635543346405029e-01,-3.283505141735076904e-01,-3.010095059871673584e-01,-2.841252386569976807e-01,-2.872281670570373535e-01,-2.862546443939208984e-01,-2.369114607572555542e-01,-1.724095791578292847e-01,-1.643619239330291748e-01,-2.554021403193473816e-02,-3.215936943888664246e-02,9.450985118746757507e-03,-9.977268986403942108e-03,2.427346073091030121e-02,-2.601690404117107391e-02,-1.388069475069642067e-03,-9.371203929185867310e-02,-2.237201929092407227e-01,-2.550175786018371582e-01,-2.787190675735473633e-01,-3.100182116031646729e-01,-3.058741390705108643e-01,-2.910288870334625244e-01,-2.700861096382141113e-01,-3.179953992366790771e-01,-2.763510048389434814e-01,-2.623659670352935791e-01,-2.678508460521697998e-01,-2.867100536823272705e-01,-2.939864099025726318e-01,-2.714937329292297363e-01,-2.835939526557922363e-01,-2.692853808403015137e-01,-2.153195589780807495e-01,-2.073230743408203125e-01,-1.091899722814559937e-01,-1.257131900638341904e-02,-1.480496022850275040e-02,2.854251489043235779e-02,5.159880500286817551e-03,2.668680064380168915e-02,2.564830472692847252e-03,-2.623031847178936005e-02,2.674246020615100861e-02,-6.839990615844726562e-02,-8.166871219873428345e-02,-1.247890517115592957e-01,-1.958357542753219604e-01,-1.935251057147979736e-01,-2.359285950660705566e-01,-2.139908075332641602e-01,-2.802195549011230469e-01,-2.683191895484924316e-01,-2.769289612770080566e-01,-2.411750257015228271e-01,-2.398336529731750488e-01,-2.674413919448852539e-01,-2.390244752168655396e-01,-2.049225419759750366e-01,-1.975311338901519775e-01,-1.664588004350662231e-01,-7.583867013454437256e-02,-6.147163361310958862e-02,-2.513639628887176514e-02,-7.780492771416902542e-03,-4.385381937026977539e-03,9.773058816790580750e-03,-1.426879037171602249e-02
-2.009887807071208954e-02,-2.394091710448265076e-02,1.556161139160394669e-02,7.564744912087917328e-03,-2.185188047587871552e-02,2.003116300329566002e-03,-2.490537590347230434e-04,-9.499316103756427765e-03,1.526506058871746063e-02,-2.381304465234279633e-02,-1.145401271060109138e-03,2.652159892022609711e-03,-5.000031366944313049e-02,-5.696065351366996765e-02,4.274028819054365158e-03,-5.984765011817216873e-03,3.331595659255981445e-02,-8.749425411224365234e-03,-1.089548226445913315e-02,3.050816990435123444e-02,-1.989394053816795349e-02,6.769848987460136414e-03,-1.103380788117647171e-02,-3.179316967725753784e-02,2.932474948465824127e-02,1.998791657388210297e-02,-2.564381435513496399e-02,3.261262923479080200e-02,-3.076773509383201599e-02,1.569666713476181030e-02,-2.888892032206058502e-02,-2.912835776805877686e-02,-4.150693118572235107e-02,8.925594738684594631e-04,-8.118562400341033936e-02,-8.180534839630126953e-02,-1.344510018825531006e-01,-1.752598732709884644e-01,-1.718878746032714844e-01,-1.797641366720199585e-01,-2.446115911006927490e-01,-2.161967456340789795e-01,-1.178741380572319031e-01,-5.884119495749473572e-02,-1.967110633850097656e-01,-1.964051425457000732e-01,-1.967927366495132446e-01,-1.534106880426406860e-01,-1.159594729542732239e-01,-1.104853749275207520e-01,-3.097944147884845734e-02,-1.146966125816106796e-02,2.916502207517623901e-02,1.225121133029460907e-02,-1.491567119956016541e-02,-3.261887282133102417e-02,-1.553386566229164600e-03,-6.524771917611360550e-03,-1.052340399473905563e-02,2.390989102423191071e-03,-7.136129587888717651e-02,-4.338926449418067932e-02,-1.523568034172058105e-01,-1.794104874134063721e-01,-2.326834499835968018e-01,-2.707540392875671387e-01,-2.855910360813140869e-01,-2.703130245208740234e-01,-2.660592198371887207e-01,-2.770529985427856445e-01,-2.723984718322753906e-01,-2.489342987537384033e-01,-2.498111724853515625e-01,-2.877542078495025635e-01,-2.639620602130889893e-01,-3.068637251853942871e-01,-3.050821125507354736e-01,-2.668284177780151367e-01,-2.220097631216049194e-01,-2.005210071802139282e-01,-8.064290881156921387e-02,-6.368749588727951050e-02,-2.049713581800460815e-02,-2.297144010663032532e-02,1.262827496975660324e-02,1.092203613370656967e-02,3.548500314354896545e-02,-2.487591281533241272e-02,-1.028841137886047363e-01,-1.571008861064910889e-01,-1.843000352382659912e-01,-2.165858149528503418e-01,-3.057878315448760986e-01,-3.099490404129028320e-01,-2.944131195545196533e-01,-3.229701519012451172e-01,-2.822893559932708740e-01,-2.650550007820129395e-01,-2.922452688217163086e-01,-3.162356317043304443e-01,-2.851026952266693115e-01,-3.196679651737213135e-01,-2.708288729190826416e-01,-3.042573928833007812e-01,-3.010883331298828125e-01,-2.650980651378631592e-01,-2.469253242015838623e-01,-2.075495123863220215e-01,-1.996566951274871826e-01,-9.813511371612548828e-02,-4.128191992640495300e-02,-2.306188084185123444e-02,-3.319850191473960876e-02,1.016471814364194870e-02,6.024675443768501282e-02,-8.018805086612701416e-02,-1.499825417995452881e-01,-1.667741984128952026e-01,-2.738876640796661377e-01,-2.760590612888336182e-01,-2.857433855533599854e-01,-3.065980672836303711e-01,-3.254232704639434814e-01,-2.590627968311309814e-01,-2.862505614757537842e-01,-1.041227355599403381e-01,6.923358887434005737e-02,1.518744975328445435e-01,1.878758072853088379e-01,2.216611951589584351e-01,1.860250085592269897e-01,2.683458328247070312e-01,1.936644017696380615e-01,1.596171557903289795e-01,-1.422674767673015594e-02,-1.315908581018447876e-01,-1.789383739233016968e-01,-2.004313319921493530e-01,-1.096047759056091309e-01,-3.771336004137992859e-02,-3.114602528512477875e-02,-2.332981303334236145e-02,2.271852688863873482e-03,-2.161338552832603455e-02,-2.014263421297073364e-01,-2.633960247039794922e-01,-2.679871320724487305e-01,-2.766535878181457520e-01,-2.947911322116851807e-01,-3.067048490047454834e-01,-2.651943564414978027e-01,-3.249271214008331299e-01,-2.523242533206939697e-01,-2.335557043552398682e-01,6.846695393323898315e-02,1.965635567903518677e-01,2.037032693624496460e-01,2.125472724437713623e-01,2.321443408727645874e-01,1.767415255308151245e-01,1.335133016109466553e-01,-5.146262794733047485e-02,-1.928000599145889282e-01,-2.509937286376953125e-01,-2.742875218391418457e-01,-2.620272338390350342e-01,-1.736669838428497314e-01,-7.931410521268844604e-02,9.840020909905433655e-03,-9.109108941629528999e-04,-1.318126171827316284e-01,-1.466031372547149658e-01,-2.833239734172821045e-01,-2.882133126258850098e-01,-2.971062064170837402e-01,-2.940276563167572021e-01,-3.123613297939300537e-01,-3.000207543373107910e-01,-2.759622931480407715e-01,-3.178939223289489746e-01,-2.750062048435211182e-01,-2.966885864734649658e-01,-1.670343875885009766e-01,6.544370949268341064e-02,1.421519219875335693e-01,5.413922294974327087e-02,-6.556934118270874023e-02,-1.446101963520050049e-01,-2.558707892894744873e-01,-2.481827437877655029e-01,-2.743325829505920410e-01,-2.469279170036315918e-01,-2.970950603485107422e-01,-2.473983466625213623e-01,-2.560163438320159912e-01,-1.445967406034469604e-01,-3.873674198985099792e-02,-1.135266572237014771e-01,-1.239437833428382874e-01,-2.900939285755157471e-01,-2.606983482837677002e-01,-3.237382769584655762e-01,-2.644754648208618164e-01,-2.639433741569519043e-01,-3.297394514083862305e-01,-3.229757547378540039e-01,-3.164235055446624756e-01,-2.975239753723144531e-01,-2.867354750633239746e-01,-2.684195935726165771e-01,-1.753067374229431152e-01,1.748263984918594360e-01,1.886261552572250366e-01,-4.108965024352073669e-02,-2.182466089725494385e-01,-2.964990437030792236e-01,-2.951436340808868408e-01,-2.875897586345672607e-01,-2.555204927921295166e-01,-2.941866219043731689e-01,-2.901754677295684814e-01,-2.658120691776275635e-01,-2.624849975109100342e-01,-1.274433284997940063e-01,-1.462744455784559250e-02,-1.597706526517868042e-01,-2.589625418186187744e-01,-2.816539406776428223e-01,-3.195935487747192383e-01,-2.807101309299468994e-01,-2.936636209487915039e-01,-2.679789066314697266e-01,-2.964313328266143799e-01,-3.116597831249237061e-01,-2.711962163448333740e-01,-3.165334463119506836e-01,-3.080733120441436768e-01,-2.537969946861267090e-01,2.217814624309539795e-01,2.749837338924407959e-01,3.082067966461181641e-01,1.009531095623970032e-01,-2.735385000705718994e-01,-3.102538585662841797e-01,-3.141072094440460205e-01,-2.896095514297485352e-01,-2.785109579563140869e-01,-2.725586295127868652e-01,-3.252734541893005371e-01,-2.975515127182006836e-01,-2.756942510604858398e-01,-7.776423543691635132e-02,-1.457090117037296295e-02,-1.147355884313583374e-01,-2.519930005073547363e-01,-2.821065187454223633e-01,-2.964186072349548340e-01,-2.886796891689300537e-01,-2.629978954792022705e-01,-2.747384607791900635e-01,-2.757298350334167480e-01,-3.054510951042175293e-01,-2.927355468273162842e-01,-3.257849216461181641e-01,-2.854906618595123291e-01,-2.214920669794082642e-01,2.582398355007171631e-01,2.818824052810668945e-01,3.201414346694946289e-01,1.960564106702804565e-01,-2.813752293586730957e-01,-3.267167210578918457e-01,-3.292980194091796875e-01,-3.202719390392303467e-01,-3.227922618389129639e-01,-3.187966942787170410e-01,-2.761684954166412354e-01,-2.810740768909454346e-01,-2.468801289796829224e-01,-1.000197753310203552e-01,-5.604360252618789673e-02,-7.312082499265670776e-02,-2.271821051836013794e-01,-3.038959205150604248e-01,-2.982440292835235596e-01,-2.898803055286407471e-01,-3.129969239234924316e-01,-3.053289055824279785e-01,-2.995809912681579590e-01,-3.299626708030700684e-01,-3.160386979579925537e-01,-3.186824917793273926e-01,-3.118563592433929443e-01,2.536393105983734131e-01,2.949186563491821289e-01,2.692163884639739990e-01,2.774592041969299316e-01,2.701830118894577026e-02,-2.612611353397369385e-01,-2.789632380008697510e-01,-3.046615123748779297e-01,-2.976097464561462402e-01,-3.064996600151062012e-01,-3.187623918056488037e-01,-3.212819993495941162e-01,-2.576361596584320068e-01,-1.724514812231063843e-01,-6.721319258213043213e-02,-7.814245671033859253e-02,-1.148823276162147522e-01,-2.734360992908477783e-01,-2.955804467201232910e-01,-2.769465744495391846e-01,-2.994997203350067139e-01,-3.097633719444274902e-01,-3.291112780570983887e-01,-2.886663675308227539e-01,-2.599954903125762939e-01,-2.969881892204284668e-01,-2.947747111320495605e-01,-3.128758966922760010e-01,2.881564497947692871e-01,3.180265724658966064e-01,3.257151544094085693e-01,2.582364380359649658e-01,-2.597590982913970947e-01,-3.263408541679382324e-01,-2.659142911434173584e-01,-2.986029684543609619e-01,-2.662006020545959473e-01,-2.960838675498962402e-01,-3.271047174930572510e-01,-2.852434515953063965e-01,-2.251378744840621948e-01,-1.226083859801292419e-01,4.369429370854049921e-04,-3.890086337924003601e-02,-1.184499114751815796e-01,-2.477835863828659058e-01,-2.839424610137939453e-01,-3.208974003791809082e-01,-3.067038357257843018e-01,-3.016102313995361328e-01,-2.699916958808898926e-01,-2.689504623413085938e-01,-2.989300787448883057e-01,-3.311437070369720459e-01,-2.923481762409210205e-01,-2.568034529685974121e-01,3.069202005863189697e-01,3.271138072013854980e-01,3.129145205020904541e-01,2.845401167869567871e-01,-2.826022207736968994e-01,-2.833366394042968750e-01,-2.850043177604675293e-01,-2.803311645984649658e-01,-2.923495769500732422e-01,-2.607652544975280762e-01,-3.275492489337921143e-01,-2.693315446376800537e-01,-2.680167257785797119e-01,-1.855129152536392212e-01,3.344706445932388306e-02,4.018437489867210388e-02,-6.585988402366638184e-02,-1.443820446729660034e-01,-2.247986495494842529e-01,-2.974486947059631348e-01,-2.815372049808502197e-01,-2.674500048160552979e-01,-2.977935671806335449e-01,-3.122145533561706543e-01,-3.240693211555480957e-01,-3.236806094646453857e-01,-2.836166918277740479e-01,-3.082817792892456055e-01,2.957370877265930176e-01,3.045415580272674561e-01,3.247013688087463379e-01,-2.065082788467407227e-01,-2.763302922248840332e-01,-2.729925513267517090e-01,-3.015724718570709229e-01,-2.750510573387145996e-01,-3.001036643981933594e-01,-2.982974052429199219e-01,-3.277358114719390869e-01,-3.156943023204803467e-01,-2.658033370971679688e-01,-2.004947066307067871e-01,-4.524732381105422974e-02,-3.223078697919845581e-02,-3.716319426894187927e-02,-1.654997020959854126e-01,-2.350047975778579712e-01,-3.221189677715301514e-01,-3.030684292316436768e-01,-2.867710292339324951e-01,-2.911863923072814941e-01,-2.710836827754974365e-01,-3.282024264335632324e-01,-3.198627233505249023e-01,-2.686896622180938721e-01,-2.222757488489151001e-01,2.920069396495819092e-01,3.179788589477539062e-01,2.831942141056060791e-01,-2.565408349037170410e-01,-3.047125637531280518e-01,-3.077224493026733398e-01,-3.276973366737365723e-01,-2.647273540496826172e-01,-2.750875651836395264e-01,-3.256708085536956787e-01,-3.061157763004302979e-01,-2.650219798088073730e-01,-2.535856068134307861e-01,-1.799362897872924805e-01,-1.195179950445890427e-02,1.242279773578047752e-03,-2.126372605562210083e-02,-6.703291088342666626e-02,-2.654210329055786133e-01,-2.852590382099151611e-01,-2.857397794723510742e-01,-3.206097483634948730e-01,-2.624632716178894043e-01,-2.653177678585052490e-01,-2.662474811077117920e-01,-3.038956522941589355e-01,-2.982492148876190186e-01,1.181806996464729309e-01,3.273829221725463867e-01,3.232732117176055908e-01,3.090032637119293213e-01,-2.957433760166168213e-01,-2.979416847229003906e-01,-2.601802051067352295e-01,-3.014530539512634277e-01,-2.840922474861145020e-01,-2.917743921279907227e-01,-2.973669767379760742e-01,-3.180866241455078125e-01,-3.083027899265289307e-01,-2.900206148624420166e-01,-2.142133563756942749e-01,-5.222971364855766296e-02,-9.417490102350711823e-03,-1.292022597044706345e-02,-5.035120621323585510e-02,-2.394564598798751831e-01,-2.647818326950073242e-01,-3.284753859043121338e-01,-2.764854729175567627e-01,-3.251775205135345459e-01,-2.600703239440917969e-01,-3.195714354515075684e-01,-3.106619715690612793e-01,-3.125431239604949951e-01,2.558110058307647705e-01,3.142628669738769531e-01,2.904392182826995850e-01,2.596409916877746582e-01,-2.986740171909332275e-01,-3.228290081024169922e-01,-3.021498918533325195e-01,-2.925323247909545898e-01,-3.172869384288787842e-01,-2.920793294906616211e-01,-2.726415395736694336e-01,-2.966997325420379639e-01,-3.060288429260253906e-01,-2.784158587455749512e-01,-2.021215260028839111e-01,-1.014060005545616150e-01,-4.912461619824171066e-03,2.093183808028697968e-02,-1.712322831153869629e-01,-2.562919259071350098e-01,-2.695662379264831543e-01,-2.599121034145355225e-01,-3.127816319465637207e-01,-2.593676745891571045e-01,-3.008494079113006592e-01,-3.270794451236724854e-01,-3.138007521629333496e-01,5.956633761525154114e-02,2.748752534389495850e-01,3.032263219356536865e-01,2.982389032840728760e-01,6.803241372108459473e-02,-2.811099290847778320e-01,-2.617045938968658447e-01,-2.935742735862731934e-01,-3.063271045684814453e-01,-2.905863821506500244e-01,-3.088854849338531494e-01,-2.778220772743225098e-01,-3.233953416347503662e-01,-2.558807134628295898e-01,-2.467321753501892090e-01,-1.694300174713134766e-01,-4.272734373807907104e-02,-9.370084851980209351e-03,9.851489216089248657e-03,-2.334653735160827637e-01,-2.694375216960906982e-01,-2.970635592937469482e-01,-3.073700368404388428e-01,-2.971682250499725342e-01,-2.920843362808227539e-01,-2.600177526473999023e-01,-2.919913828372955322e-01,-2.470853626728057861e-01,2.605151236057281494e-01,2.776067256927490234e-01,3.041640520095825195e-01,3.178204596042633057e-01,-1.831793040037155151e-01,-2.657608687877655029e-01,-3.125914633274078369e-01,-2.758972942829132080e-01,-3.211477100849151611e-01,-2.979209423065185547e-01,-3.160109817981719971e-01,-2.668629884719848633e-01,-3.135657310485839844e-01,-2.544828653335571289e-01,-2.663644254207611084e-01,-9.591689705848693848e-02,4.807227477431297302e-02,5.585462972521781921e-02,3.836403414607048035e-02,-1.918724179267883301e-01,-2.623640298843383789e-01,-2.908207178115844727e-01,-2.650589942932128906e-01,-3.175228536128997803e-01,-3.182069361209869385e-01,-3.212787806987762451e-01,-2.495408207178115845e-01,-7.911588996648788452e-02,2.531486451625823975e-01,2.762689292430877686e-01,3.273206353187561035e-01,2.764447927474975586e-01,-2.407769709825515747e-01,-3.091891407966613770e-01,-3.235449194908142090e-01,-2.694409787654876709e-01,-3.171032965183258057e-01,-2.706639170646667480e-01,-2.621400356292724609e-01,-2.738712430000305176e-01,-2.688115835189819336e-01,-2.544768750667572021e-01,-2.430991679430007935e-01,-1.152072697877883911e-01,4.017005860805511475e-02,2.741901017725467682e-02,-8.701203763484954834e-02,-2.125038653612136841e-01,-2.991716265678405762e-01,-3.249959945678710938e-01,-2.660946547985076904e-01,-2.927692532539367676e-01,-2.703954279422760010e-01,-2.977162897586822510e-01,-2.917631864547729492e-01,5.518122389912605286e-02,2.943623065948486328e-01,2.648579180240631104e-01,3.114081919193267822e-01,2.362098991870880127e-01,-2.920895516872406006e-01,-3.125715553760528564e-01,-3.261901736259460449e-01,-2.719574570655822754e-01,-3.126353323459625244e-01,-3.185976147651672363e-01,-2.897661626338958740e-01,-3.004630506038665771e-01,-3.142650425434112549e-01,-2.878413200378417969e-01,-2.544673979282379150e-01,-7.836431264877319336e-02,-1.127058081328868866e-02,9.078461444005370140e-04,-6.688507646322250366e-02,-2.182018458843231201e-01,-2.606124877929687500e-01,-3.046634793281555176e-01,-2.547990679740905762e-01,-3.033113777637481689e-01,-2.697657644748687744e-01,-2.843556106090545654e-01,-2.395240366458892822e-01,3.709836304187774658e-02,1.971520930528640747e-01,2.236148864030838013e-01,2.224477827548980713e-01,-7.554589211940765381e-02,-2.650691270828247070e-01,-2.668209671974182129e-01,-3.267091214656829834e-01,-3.289172649383544922e-01,-2.766052484512329102e-01,-2.627092301845550537e-01,-2.643117010593414307e-01,-3.240227699279785156e-01,-2.603057920932769775e-01,-2.678826153278350830e-01,-2.094613909721374512e-01,-3.071310697123408318e-03,1.471346709877252579e-03,-4.279087763279676437e-03,1.174023747444152832e-02,-2.229711413383483887e-01,-2.954481244087219238e-01,-2.956477403640747070e-01,-3.038519024848937988e-01,-2.992750406265258789e-01,-2.410968989133834839e-01,-2.811051905155181885e-01,-1.953270733356475830e-01,2.033244445919990540e-02,9.404476732015609741e-02,3.078460460528731346e-03,-1.545769069343805313e-02,-1.106479093432426453e-01,-2.303103059530258179e-01,-2.689045667648315430e-01,-3.020506799221038818e-01,-2.798464298248291016e-01,-3.097814619541168213e-01,-3.085864186286926270e-01,-2.923841178417205811e-01,-2.752884328365325928e-01,-2.443041205406188965e-01,-2.584583461284637451e-01,-1.196475327014923096e-01,-1.105665229260921478e-02,3.554271068423986435e-03,-5.497711244970560074e-03,8.981355931609869003e-04,-1.475434899330139160e-01,-2.722591757774353027e-01,-2.482626289129257202e-01,-1.907173842191696167e-01,-2.329114079475402832e-01,-1.684198975563049316e-01,-1.261804848909378052e-01,5.534846335649490356e-02,2.868099324405193329e-02,-4.915456473827362061e-02,-1.297308653593063354e-01,-1.354301720857620239e-01,-6.198065355420112610e-02,-2.005487531423568726e-01,-2.606147229671478271e-01,-2.674164772033691406e-01,-2.705991566181182861e-01,-3.193560540676116943e-01,-2.667391002178192139e-01,-2.566474974155426025e-01,-2.844848930835723877e-01,-3.009071648120880127e-01,-1.871935725212097168e-01,1.103848405182361603e-02,4.658220335841178894e-02,-3.259292803704738617e-03,1.618226990103721619e-02,2.214101515710353851e-02,-9.919099509716033936e-02,-1.695982515811920166e-01,-1.728003472089767456e-01,-1.158121228218078613e-01,-1.878921091556549072e-01,-2.032615542411804199e-01,-2.505886554718017578e-01,-2.914575934410095215e-01,-3.010031282901763916e-01,-2.752432525157928467e-01,-3.009862899780273438e-01,-2.599383592605590820e-01,-2.746616899967193604e-01,-2.860531508922576904e-01,-2.572518289089202881e-01,-2.767280340194702148e-01,-3.184279203414916992e-01,-3.018879890441894531e-01,-3.000716269016265869e-01,-2.493352741003036499e-01,-2.401440143585205078e-01,-2.310052067041397095e-01,-1.760560572147369385e-01,1.577252289280295372e-03,4.340810701251029968e-02,1.986563764512538910e-02,2.179384417831897736e-02,2.433403953909873962e-02,-1.612164825201034546e-02,-7.106497138738632202e-02,-1.687268316745758057e-01,-2.546119987964630127e-01,-2.913276851177215576e-01,-2.851578891277313232e-01,-3.057767450809478760e-01,-3.111701309680938721e-01,-2.670130133628845215e-01,-2.719303667545318604e-01,-2.924256920814514160e-01,-2.580708563327789307e-01,-2.919991910457611084e-01,-2.918026745319366455e-01,-3.139336109161376953e-01,-3.161701261997222900e-01,-2.608076035976409912e-01,-2.578880488872528076e-01,-2.657662034034729004e-01,-2.505526840686798096e-01,-2.203359305858612061e-01,-1.905326992273330688e-01,-1.248423904180526733e-01,-6.726379692554473877e-02,-3.267832100391387939e-02,-8.380166254937648773e-03,1.288391929119825363e-02,-2.764068543910980225e-02,-1.930858567357063293e-02,-2.845090115442872047e-03,-1.037743687629699707e-01,-1.877375543117523193e-01,-2.836978137493133545e-01,-2.838487625122070312e-01,-2.654512226581573486e-01,-3.019112646579742432e-01,-3.161605596542358398e-01,-2.972378730773925781e-01,-2.692722976207733154e-01,-3.244822025299072266e-01,-3.068527877330780029e-01,-2.968653738498687744e-01,-3.065245151519775391e-01,-2.660145163536071777e-01,-2.814199924468994141e-01,-3.033562302589416504e-01,-2.777610123157501221e-01,-2.193377763032913208e-01,-1.748110949993133545e-01,-1.107704788446426392e-01,-1.103227864950895309e-02,-3.669105097651481628e-02,-1.372584328055381775e-02,-2.413831464946269989e-02,1.869749277830123901e-02,-7.690591737627983093e-03,2.106274478137493134e-02,1.044590584933757782e-02,-1.946828514337539673e-02,-6.019735708832740784e-02,-1.556598991155624390e-01,-1.652141213417053223e-01,-1.861410886049270630e-01,-2.087163329124450684e-01,-2.654852569103240967e-01,-2.558352947235107422e-01,-2.787140905857086182e-01,-2.699345946311950684e-01,-2.338606715202331543e-01,-2.773122787475585938e-01,-2.792879343032836914e-01,-2.168752849102020264e-01,-2.216027230024337769e-01,-1.540421694517135620e-01,-1.208169981837272644e-01,-1.028601899743080139e-01,-8.972138166427612305e-02,-3.311228379607200623e-02,1.396526675671339035e-02,-2.266394719481468201e-02,-7.497770711779594421e-03,8.574929088354110718e-03
-2.882710658013820648e-02,-3.534948453307151794e-02,-1.567572355270385742e-02,-1.899940334260463715e-02,2.653891406953334808e-02,-2.958654239773750305e-02,2.972278557717800140e-02,3.096925560384988785e-03,2.580758184194564819e-02,2.636451460421085358e-02,-3.575295442715287209e-03,1.237925514578819275e-02,2.778484858572483063e-02,-6.562789902091026306e-03,3.411047905683517456e-02,2.885617781430482864e-03,1.682241074740886688e-02,-1.952562667429447174e-02,-7.021470228210091591e-04,-3.486712276935577393e-02,3.181521547958254814e-03,8.695360273122787476e-03,-3.199066594243049622e-02,4.535381682217121124e-03,2.775078639388084412e-02,-2.992157079279422760e-02,1.536514982581138611e-02,1.043666712939739227e-02,8.584576658904552460e-03,-3.232218325138092041e-02,-1.800074800848960876e-02,6.267739459872245789e-03,-1.669715344905853271e-02,-1.482028979808092117e-02,-7.789534330368041992e-02,-4.585552215576171875e-02,-2.323626074939966202e-03,-4.208542779088020325e-02,7.240507751703262329e-03,-1.944206305779516697e-03,-9.016271680593490601e-02,-8.079196512699127197e-02,-3.432258218526840210e-02,1.787290093488991261e-03,3.811193257570266724e-02,-4.913933575153350830e-02,-1.407537758350372314e-01,-1.463301181793212891e-01,-1.146323755383491516e-01,-9.729097783565521240e-02,-8.227059245109558105e-02,-4.063400626182556152e-02,2.987423166632652283e-02,-1.837913133203983307e-02,2.254100516438484192e-02,1.435608137398958206e-02,2.486295066773891449e-02,-1.279180031269788742e-02,-4.417082294821739197e-02,-3.199023008346557617e-02,-7.212930172681808472e-02,-2.713153511285781860e-02,4.482646659016609192e-02,2.098548039793968201e-02,9.608580917119979858e-02,1.350138038396835327e-01,1.449136883020401001e-01,1.221642494201660156e-01,1.727308481931686401e-01,1.348925232887268066e-01,5.503039062023162842e-02,5.394609179347753525e-03,-5.839408561587333679e-02,-2.129698544740676880e-01,-2.220364511013031006e-01,-2.609166204929351807e-01,-2.850095033645629883e-01,-2.463930398225784302e-01,-2.342074811458587646e-01,-6.282950192689895630e-02,-1.540033333003520966e-02,-1.047520898282527924e-02,5.199185688979923725e-04,1.428267452865839005e-02,-2.472596243023872375e-02,3.006658144295215607e-02,2.010638639330863953e-02,-1.782811433076858521e-02,3.192104399204254150e-02,1.045133024454116821e-01,1.513598114252090454e-01,2.000866234302520752e-01,2.623632550239562988e-01,2.479355782270431519e-01,2.705654799938201904e-01,2.997504472732543945e-01,2.978911697864532471e-01,3.082036674022674561e-01,3.031779229640960693e-01,2.958262562751770020e-01,3.104083538055419922e-01,2.402090281248092651e-01,2.301615327596664429e-01,1.989317983388900757e-01,1.044760048389434814e-01,-4.820341989398002625e-02,-1.165488138794898987e-01,-1.629882752895355225e-01,-5.822587758302688599e-02,-2.313106320798397064e-02,-6.751586217433214188e-03,-3.172285854816436768e-02,1.358743291348218918e-03,-4.651655629277229309e-02,1.640554703772068024e-02,1.490879151970148087e-02,6.948103010654449463e-02,2.105254530906677246e-01,2.181800007820129395e-01,2.441479861736297607e-01,2.863155007362365723e-01,3.140411674976348877e-01,2.581157088279724121e-01,2.673358023166656494e-01,2.994368970394134521e-01,2.903035879135131836e-01,3.126575946807861328e-01,3.141786158084869385e-01,2.681633830070495605e-01,2.633355557918548584e-01,3.024898171424865723e-01,2.604407370090484619e-01,2.378119230270385742e-01,1.295795440673828125e-01,-1.480944752693176270e-01,-2.821438312530517578e-01,-2.819090485572814941e-01,-1.640259921550750732e-01,-9.127239882946014404e-02,-3.577388823032379150e-02,3.194756060838699341e-02,3.020063228905200958e-02,-1.422961987555027008e-02,-4.126976430416107178e-02,1.007170304656028748e-01,1.993063837289810181e-01,2.607775628566741943e-01,2.811907231807708740e-01,2.594615817070007324e-01,2.869540154933929443e-01,2.991505265235900879e-01,3.215860426425933838e-01,2.900963723659515381e-01,3.025613427162170410e-01,2.546455860137939453e-01,2.688910961151123047e-01,2.815647125244140625e-01,2.616793215274810791e-01,2.591292858123779297e-01,2.217884063720703125e-01,2.155128717422485352e-01,1.625767536461353302e-02,-2.338010817766189575e-01,-2.854216694831848145e-01,-2.692027390003204346e-01,-2.890933752059936523e-01,-2.231134772300720215e-01,-4.896014183759689331e-02,-2.972138486802577972e-02,-2.693564072251319885e-02,-7.796357572078704834e-02,-8.666746318340301514e-03,1.286384314298629761e-01,2.405265569686889648e-01,2.667257785797119141e-01,2.948572933673858643e-01,2.961918711662292480e-01,2.634738981723785400e-01,2.702969610691070557e-01,3.193635046482086182e-01,2.783654630184173584e-01,2.862683534622192383e-01,2.534811794757843018e-01,2.747882008552551270e-01,2.816820442676544189e-01,2.877706587314605713e-01,2.439412474632263184e-01,2.037417739629745483e-01,1.503494381904602051e-01,-4.875646904110908508e-02,-2.550284564495086670e-01,-2.706121504306793213e-01,-3.067346215248107910e-01,-3.006173968315124512e-01,-2.519038319587707520e-01,-1.526181250810623169e-01,-5.149008706212043762e-03,-8.430115878582000732e-02,-7.573725283145904541e-02,-1.352591812610626221e-01,5.372529476881027222e-02,1.956813186407089233e-01,2.819720506668090820e-01,3.141020536422729492e-01,2.929716408252716064e-01,2.508972287178039551e-01,2.917507290840148926e-01,2.691617906093597412e-01,1.492883116006851196e-01,-1.059584319591522217e-01,-1.511879861354827881e-01,-1.227691248059272766e-01,-5.224779713898897171e-03,1.519491970539093018e-01,2.062883675098419189e-01,1.711653321981430054e-01,7.400939613580703735e-02,-7.786614447832107544e-02,-2.818294763565063477e-01,-2.795568108558654785e-01,-2.828112542629241943e-01,-2.809886932373046875e-01,-2.820963561534881592e-01,-1.203444078564643860e-01,-3.826368600130081177e-02,-1.058500260114669800e-01,-1.970661282539367676e-01,-2.333755344152450562e-01,-1.039951667189598083e-01,1.791477650403976440e-01,2.117647528648376465e-01,2.124862968921661377e-01,2.311916053295135498e-01,5.156381800770759583e-02,-1.702177077531814575e-01,-2.510686814785003662e-01,-3.084191977977752686e-01,-3.220210373401641846e-01,-2.654097676277160645e-01,-2.909003794193267822e-01,-2.161491513252258301e-01,4.440287500619888306e-02,1.788257956504821777e-01,1.373260319232940674e-01,8.801752328872680664e-02,-1.455265283584594727e-01,-2.775299549102783203e-01,-2.743959426879882812e-01,-2.739355862140655518e-01,-2.764818668365478516e-01,-2.235587239265441895e-01,-1.377135068178176880e-01,-5.776882544159889221e-02,-1.551763713359832764e-01,-2.121997475624084473e-01,-2.228957116603851318e-01,-1.688629537820816040e-01,-9.706864133477210999e-03,7.759352028369903564e-02,-4.627192020416259766e-02,-2.503541707992553711e-01,-2.997031211853027344e-01,-3.206337690353393555e-01,-2.720163166522979736e-01,-2.962154746055603027e-01,-2.900438308715820312e-01,-2.703971266746520996e-01,-2.921215593814849854e-01,-1.695521771907806396e-01,1.205476000905036926e-01,2.392162382602691650e-01,2.020508944988250732e-01,1.205369830131530762e-01,-1.350617557764053345e-01,-2.507405281066894531e-01,-2.569001913070678711e-01,-3.127708733081817627e-01,-2.943967282772064209e-01,-2.334373295307159424e-01,-1.401380002498626709e-01,-6.695415079593658447e-02,-1.928552836179733276e-01,-2.293726652860641479e-01,-2.395757138729095459e-01,-2.104877382516860962e-01,-1.517315953969955444e-01,-2.367908656597137451e-01,-3.076611459255218506e-01,-3.076375126838684082e-01,-2.825679183006286621e-01,-2.719892263412475586e-01,-3.174643218517303467e-01,-3.050014376640319824e-01,-3.162561655044555664e-01,-2.879312932491302490e-01,-2.521218061447143555e-01,-1.514330506324768066e-02,2.013255506753921509e-01,2.680805921554565430e-01,1.957049071788787842e-01,1.225724741816520691e-01,-1.190003231167793274e-01,-2.882499098777770996e-01,-2.540537416934967041e-01,-3.235993981361389160e-01,-2.318611741065979004e-01,-1.535308063030242920e-01,-9.938904643058776855e-02,-3.920601680874824524e-02,-1.333430111408233643e-01,-2.570682466030120850e-01,-2.207003682851791382e-01,-2.798248529434204102e-01,-2.766066193580627441e-01,-3.109114766120910645e-01,-2.921179533004760742e-01,-2.890233099460601807e-01,-2.813154160976409912e-01,-3.051545023918151855e-01,-3.024727404117584229e-01,-2.805823385715484619e-01,-2.796783745288848877e-01,-2.643902003765106201e-01,-2.932260036468505859e-01,6.224483996629714966e-02,2.527474462985992432e-01,2.544975578784942627e-01,2.512389719486236572e-01,1.708482056856155396e-01,-1.339904516935348511e-01,-2.391755431890487671e-01,-2.566353976726531982e-01,-2.571983933448791504e-01,-1.135336458683013916e-01,-1.484016031026840210e-01,-3.558542951941490173e-02,-1.030462794005870819e-02,-1.137641966342926025e-01,-1.880098134279251099e-01,-2.245328575372695923e-01,-2.638813853263854980e-01,-2.556473612785339355e-01,-2.877234518527984619e-01,-2.905644178390502930e-01,-3.291218876838684082e-01,-2.909562885761260986e-01,-2.724496722221374512e-01,-2.734390199184417725e-01,-3.098829984664916992e-01,-2.831123769283294678e-01,-2.678131759166717529e-01,-2.413059026002883911e-01,-1.768641988746821880e-03,1.460295170545578003e-01,2.051946073770523071e-01,1.981439441442489624e-01,1.367331147193908691e-01,-2.638378143310546875e-01,-2.505888342857360840e-01,-2.778007984161376953e-01,-2.880673706531524658e-01,7.143653184175491333e-02,7.052975147962570190e-02,4.089639335870742798e-02,-2.712043467909097672e-03,-1.145601198077201843e-01,-1.660638600587844849e-01,-2.350814789533615112e-01,-2.909495830535888672e-01,-2.972747981548309326e-01,-3.289909064769744873e-01,-2.832683622837066650e-01,-3.322512507438659668e-01,-2.668627500534057617e-01,-2.651940584182739258e-01,-2.984957098960876465e-01,-3.280218243598937988e-01,-2.701768875122070312e-01,-2.935369014739990234e-01,-2.531870007514953613e-01,-1.026393771171569824e-01,1.081237718462944031e-01,1.724522411823272705e-01,1.311358064413070679e-01,-1.372747570276260376e-01,-3.113512098789215088e-01,-2.800905108451843262e-01,-3.164251744747161865e-01,-2.151710242033004761e-01,1.057773754000663757e-01,1.137388870120048523e-01,9.338037669658660889e-02,-2.489002421498298645e-02,-5.517143011093139648e-02,-1.166740804910659790e-01,-1.490638703107833862e-01,-2.335240095853805542e-01,-3.031104505062103271e-01,-2.699181437492370605e-01,-3.293405473232269287e-01,-3.220796287059783936e-01,-2.684251070022583008e-01,-3.156984746456146240e-01,-2.822558283805847168e-01,-2.473941892385482788e-01,-2.040385007858276367e-01,-1.616677194833755493e-01,-1.086647361516952515e-01,7.556887716054916382e-02,5.682130903005599976e-02,5.055847391486167908e-02,-7.720044255256652832e-02,-2.829511165618896484e-01,-2.554895877838134766e-01,-3.102426230907440186e-01,-2.652602195739746094e-01,-1.579318940639495850e-01,1.949018687009811401e-01,1.827814877033233643e-01,4.930624738335609436e-02,9.952804073691368103e-03,-8.459703996777534485e-03,-8.366633206605911255e-02,1.399455312639474869e-02,-1.329246908426284790e-01,-2.385550141334533691e-01,-2.620549499988555908e-01,-2.649619281291961670e-01,-2.694969475269317627e-01,-2.224811315536499023e-01,1.921973191201686859e-02,2.177798748016357422e-01,2.770185768604278564e-01,2.461188882589340210e-01,2.454425841569900513e-01,2.442533075809478760e-01,1.901821047067642212e-01,1.736037135124206543e-01,-2.738410234451293945e-02,-2.371582239866256714e-01,-2.661846876144409180e-01,-2.512990534305572510e-01,-2.775718271732330322e-01,-1.529279500246047974e-01,1.479537039995193481e-01,2.430296838283538818e-01,1.698375344276428223e-01,8.628714829683303833e-02,-4.341172054409980774e-02,-6.295340508222579956e-02,1.841719634830951691e-02,1.267902702093124390e-01,1.802711635828018188e-01,1.970311701297760010e-01,2.593421339988708496e-01,2.663952708244323730e-01,2.303557544946670532e-01,2.758230865001678467e-01,2.454492747783660889e-01,3.150583207607269287e-01,3.173590600490570068e-01,3.128053545951843262e-01,2.665019035339355469e-01,2.738059759140014648e-01,2.717923820018768311e-01,2.326942086219787598e-01,9.133450686931610107e-02,-1.392595767974853516e-01,-2.421795129776000977e-01,-2.186475247144699097e-01,-1.579673215746879578e-02,2.398848980665206909e-01,2.407151907682418823e-01,2.746538519859313965e-01,2.146004587411880493e-01,8.386408537626266479e-02,1.580717787146568298e-02,-8.782403171062469482e-02,3.752544894814491272e-02,2.480527758598327637e-01,2.356554865837097168e-01,2.754175066947937012e-01,2.743671536445617676e-01,2.779589295387268066e-01,3.008147180080413818e-01,3.062262535095214844e-01,2.581432759761810303e-01,2.923410236835479736e-01,2.605718672275543213e-01,3.191792964935302734e-01,2.667134702205657959e-01,2.978281080722808838e-01,2.745632231235504150e-01,2.704421281814575195e-01,2.224202603101730347e-01,1.276744306087493896e-01,2.102277129888534546e-01,2.557300031185150146e-01,2.970054447650909424e-01,2.988775074481964111e-01,2.574782967567443848e-01,2.979880869388580322e-01,2.215497493743896484e-01,9.721267968416213989e-02,-4.671702533960342407e-02,-5.864843353629112244e-02,-4.545290023088455200e-02,2.181298583745956421e-01,2.910775244235992432e-01,2.975826859474182129e-01,3.172845840454101562e-01,3.022071719169616699e-01,2.891972959041595459e-01,3.070035576820373535e-01,2.976985573768615723e-01,2.813091278076171875e-01,2.774222791194915771e-01,2.699759006500244141e-01,2.722432911396026611e-01,2.922070920467376709e-01,2.499609738588333130e-01,2.208495885133743286e-01,2.398938089609146118e-01,2.342934310436248779e-01,2.506355047225952148e-01,2.871281206607818604e-01,3.223136663436889648e-01,2.976132929325103760e-01,3.179556727409362793e-01,2.914749383926391602e-01,2.184390276670455933e-01,2.049113623797893524e-02,-1.463175751268863678e-02,-6.506582349538803101e-02,-3.909560665488243103e-02,2.535224556922912598e-01,3.141292333602905273e-01,3.232365548610687256e-01,2.937970161437988281e-01,2.739186882972717285e-01,2.873158454895019531e-01,2.666321098804473877e-01,3.054993748664855957e-01,2.583400607109069824e-01,2.633024156093597412e-01,2.574956715106964111e-01,3.034997880458831787e-01,2.363696545362472534e-01,2.331311255693435669e-01,2.488833963871002197e-01,2.958017885684967041e-01,2.501215040683746338e-01,3.013430535793304443e-01,2.871103286743164062e-01,2.758633196353912354e-01,2.567405104637145996e-01,3.132808804512023926e-01,2.536324560642242432e-01,2.082699090242385864e-01,6.183756515383720398e-02,-2.956192567944526672e-02,-6.913278996944427490e-02,4.432993382215499878e-02,2.706566154956817627e-01,3.010368645191192627e-01,3.103278279304504395e-01,3.028755486011505127e-01,3.170743286609649658e-01,3.042807579040527344e-01,3.252402842044830322e-01,2.954432964324951172e-01,2.675664722919464111e-01,3.160825669765472412e-01,2.860799133777618408e-01,1.452771872282028198e-01,-6.484751403331756592e-02,-2.713924087584018707e-02,1.742349416017532349e-01,2.785274982452392578e-01,2.842451333999633789e-01,2.538564205169677734e-01,3.245126008987426758e-01,2.673713862895965576e-01,2.578489184379577637e-01,2.915927171707153320e-01,2.723132669925689697e-01,1.857366710901260376e-01,-5.263295769691467285e-02,-2.954858727753162384e-02,-6.673442199826240540e-03,5.556020140647888184e-02,2.565391957759857178e-01,2.855506837368011475e-01,2.777341306209564209e-01,3.217045962810516357e-01,3.055164515972137451e-01,3.055083751678466797e-01,3.177078664302825928e-01,2.671023607254028320e-01,2.379589676856994629e-01,1.497922390699386597e-01,-2.261189222335815430e-01,-2.864003479480743408e-01,-2.459348142147064209e-01,-2.482609301805496216e-01,-2.534170635044574738e-02,2.458924353122711182e-01,3.014409542083740234e-01,2.600110769271850586e-01,3.132649958133697510e-01,2.587200403213500977e-01,2.581415772438049316e-01,2.890222668647766113e-01,2.772760689258575439e-01,1.277577430009841919e-01,-1.830694824457168579e-02,-4.808691143989562988e-02,9.710863232612609863e-03,4.534220322966575623e-02,2.438173443078994751e-01,2.792693078517913818e-01,2.714003622531890869e-01,2.926099896430969238e-01,2.424584776163101196e-01,2.685260176658630371e-01,2.649875581264495850e-01,1.180285587906837463e-01,-1.876422911882400513e-01,-2.816109657287597656e-01,-2.608276307582855225e-01,-2.755999565124511719e-01,-3.154710233211517334e-01,-2.613892257213592529e-01,-2.632378339767456055e-01,2.149945348501205444e-01,2.995712161064147949e-01,2.626775801181793213e-01,2.921539843082427979e-01,2.906258702278137207e-01,2.567648291587829590e-01,2.792072892189025879e-01,1.710932403802871704e-01,8.115927129983901978e-02,-2.230331301689147949e-02,-3.786849323660135269e-03,-1.450393907725811005e-02,-1.093613803386688232e-01,9.431275725364685059e-02,1.816464513540267944e-01,1.924985647201538086e-01,1.709850430488586426e-01,8.695724606513977051e-02,-1.825253814458847046e-01,-3.083919584751129150e-01,-2.886748909950256348e-01,-3.155586123466491699e-01,-2.764661014080047607e-01,-3.337032496929168701e-01,-2.644028663635253906e-01,-3.247791230678558350e-01,-2.942260205745697021e-01,-3.226651847362518311e-01,-2.500675916671752930e-01,1.142740473151206970e-01,2.433912754058837891e-01,2.878168225288391113e-01,2.494334727525711060e-01,2.737676203250885010e-01,2.281154096126556396e-01,8.350045979022979736e-02,-2.917759679257869720e-02,-4.709103610366582870e-03,5.663978401571512222e-03,-7.238980382680892944e-03,-9.546973556280136108e-02,-1.838598996400833130e-01,-1.807431429624557495e-01,-1.993948668241500854e-01,-2.577725946903228760e-01,-3.018441796302795410e-01,-3.053492307662963867e-01,-3.193643987178802490e-01,-3.229856789112091064e-01,-2.999754846096038818e-01,-3.274472355842590332e-01,-2.924822568893432617e-01,-2.747392058372497559e-01,-2.655765712261199951e-01,-3.086520135402679443e-01,-3.100257813930511475e-01,-3.071928918361663818e-01,-2.744750380516052246e-01,-2.240831255912780762e-01,-2.249987563118338585e-03,1.128063127398490906e-01,9.190411865711212158e-02,1.065352857112884521e-01,4.905841127038002014e-02,2.775981649756431580e-02,2.482470497488975525e-02,3.936985041946172714e-03,-1.026416756212711334e-02,-1.124597992748022079e-02,-1.200602427124977112e-01,-1.748032867908477783e-01,-2.382739037275314331e-01,-2.986454069614410400e-01,-2.853100001811981201e-01,-2.756103575229644775e-01,-3.274256587028503418e-01,-3.157859742641448975e-01,-2.775619029998779297e-01,-3.331886529922485352e-01,-3.244608938694000244e-01,-2.748093605041503906e-01,-2.691418230533599854e-01,-2.799841761589050293e-01,-3.039675354957580566e-01,-3.067461848258972168e-01,-3.214624822139739990e-01,-2.902946472167968750e-01,-2.410380542278289795e-01,-1.746788322925567627e-01,-1.714429408311843872e-01,-1.086394116282463074e-01,1.687055081129074097e-02,4.773687943816184998e-02,-5.010162480175495148e-03,1.612958870828151703e-02,-1.546398270875215530e-02,-3.740063868463039398e-03,-2.423960343003273010e-02,-9.341638535261154175e-02,-2.335715144872665405e-01,-2.913537323474884033e-01,-3.142303526401519775e-01,-2.754310071468353271e-01,-2.806926965713500977e-01,-3.169693648815155029e-01,-2.867577672004699707e-01,-3.036434650421142578e-01,-2.621320486068725586e-01,-3.055061995983123779e-01,-3.209330737590789795e-01,-2.675994634628295898e-01,-2.568756341934204102e-01,-3.173293471336364746e-01,-3.128730654716491699e-01,-2.575353980064392090e-01,-2.519553899765014648e-01,-1.963455229997634888e-01,-7.221096009016036987e-02,6.037905695848166943e-04,1.140894275158643723e-02,2.141228877007961273e-02,-5.732706747949123383e-03,-3.230232745409011841e-02,3.069088421761989594e-02,-6.336395628750324249e-03,-3.117553889751434326e-02,-3.253217041492462158e-02,-5.941501632332801819e-02,-9.242076426744461060e-02,-1.424737423658370972e-01,-1.821331381797790527e-01,-2.143762111663818359e-01,-2.608523368835449219e-01,-2.276279777288436890e-01,-2.265505343675613403e-01,-2.819566428661346436e-01,-2.684369385242462158e-01,-2.619061470031738281e-01,-2.595469355583190918e-01,-2.495965212583541870e-01,-2.348393201828002930e-01,-1.494092643260955811e-01,-1.471953690052032471e-01,-1.275916993618011475e-01,-8.821325004100799561e-02,-4.684429615736007690e-03,-1.411059172824025154e-03,1.173218712210655212e-02,2.438134141266345978e-02,-1.668735221028327942e-02
2.920092083513736725e-02,2.470822073519229889e-02,2.247784100472927094e-02,1.245774980634450912e-02,-3.452807292342185974e-02,3.045209497213363647e-02,7.931611500680446625e-03,-4.953827592544257641e-04,4.595845937728881836e-03,1.859349012374877930e-02,2.935307100415229797e-02,-7.201220723800361156e-04,-1.586220809258520603e-03,-2.347512356936931610e-02,-1.338205859065055847e-02,-2.671587839722633362e-02,-8.036434650421142578e-03,1.690859161317348480e-02,-1.033566333353519440e-02,-2.111735567450523376e-02,2.617940865457057953e-02,-1.716421358287334442e-02,-3.384329751133918762e-02,-1.327983476221561432e-02,1.690435968339443207e-02,-1.588442176580429077e-02,-2.221021614968776703e-02,-2.636280283331871033e-02,-2.246481738984584808e-02,-3.079015947878360748e-02,-2.711801230907440186e-02,6.610066164284944534e-03,-9.999907342717051506e-04,-1.263704430311918259e-02,-6.076803430914878845e-02,-7.413370907306671143e-02,-9.861625730991363525e-02,-1.209718212485313416e-01,-2.048692256212234497e-01,-1.917458772659301758e-01,-2.412284761667251587e-01,-2.220084667205810547e-01,-2.181126624345779419e-01,-2.126378715038299561e-01,-2.140555679798126221e-01,-1.998192667961120605e-01,-2.054821401834487915e-01,-1.408333331346511841e-01,-1.044151112437248230e-01,-1.284920722246170044e-01,-5.712600052356719971e-02,-4.827943071722984314e-02,-1.906836032867431641e-02,5.502219777554273605e-03,-1.705905050039291382e-02,2.935835393145680428e-03,1.497430913150310516e-02,1.895351102575659752e-03,-2.332292124629020691e-02,-2.947224676609039307e-02,-6.893883645534515381e-02,-4.291530326008796692e-02,-1.506887823343276978e-01,-1.960505545139312744e-01,-2.674119174480438232e-01,-2.263494879007339478e-01,-2.482055425643920898e-01,-2.608947753906250000e-01,-2.487839311361312866e-01,-3.080079257488250732e-01,-2.941157221794128418e-01,-2.670359611511230469e-01,-2.711676657199859619e-01,-2.912901639938354492e-01,-2.986495792865753174e-01,-2.758853137493133545e-01,-3.115728497505187988e-01,-2.798207700252532959e-01,-2.151784151792526245e-01,-1.615945696830749512e-01,-1.044302284717559814e-01,-3.498585149645805359e-02,-2.120690769515931606e-04,1.741371117532253265e-03,2.445090375840663910e-02,2.867454849183559418e-02,-1.982839312404394150e-04,-6.148827821016311646e-02,-4.305897653102874756e-02,-5.528339650481939316e-03,-4.498067311942577362e-03,-3.650406748056411743e-02,-1.009956896305084229e-01,-1.246717348694801331e-01,-1.857649087905883789e-01,-1.818079650402069092e-01,-1.950240582227706909e-01,-2.427769005298614502e-01,-2.717980742454528809e-01,-2.880905568599700928e-01,-2.455437630414962769e-01,-2.802296876907348633e-01,-2.776938080787658691e-01,-2.930180132389068604e-01,-2.897446155548095703e-01,-3.076227009296417236e-01,-2.549217045307159424e-01,-2.820127904415130615e-01,-1.727234572172164917e-01,-1.136572062969207764e-01,-3.873835504055023193e-02,2.758446894586086273e-02,2.967245317995548248e-02,8.022580295801162720e-03,7.845751009881496429e-03,1.349305361509323120e-02,1.121465265750885010e-01,1.958702504634857178e-01,2.244937717914581299e-01,2.502521574497222900e-01,2.804510593414306641e-01,3.107000291347503662e-01,2.536886930465698242e-01,2.720809578895568848e-01,2.865500152111053467e-01,2.744032144546508789e-01,2.339588701725006104e-01,2.653467059135437012e-01,1.642465144395828247e-01,-1.806703582406044006e-02,-1.587965339422225952e-01,-2.298830896615982056e-01,-2.425751686096191406e-01,-2.893066108226776123e-01,-2.438174188137054443e-01,-3.159414231777191162e-01,-2.854556739330291748e-01,-2.034506350755691528e-01,-7.783128321170806885e-02,-6.770791858434677124e-02,-1.146451570093631744e-02,2.269976213574409485e-02,2.469142898917198181e-02,1.557049006223678589e-01,2.401199191808700562e-01,2.743442058563232422e-01,3.008433580398559570e-01,3.106530606746673584e-01,3.177916705608367920e-01,2.862196862697601318e-01,2.914216816425323486e-01,2.802836298942565918e-01,2.892389595508575439e-01,2.741992175579071045e-01,3.214893639087677002e-01,3.029115200042724609e-01,2.499604672193527222e-01,2.284893393516540527e-01,2.222079783678054810e-01,6.774343550205230713e-02,-1.219347193837165833e-01,-2.213969826698303223e-01,-2.658406198024749756e-01,-2.817017734050750732e-01,-2.757096290588378906e-01,-2.966831922531127930e-01,-2.088903337717056274e-01,-5.445122718811035156e-02,1.421463117003440857e-02,4.406194016337394714e-02,2.763487771153450012e-02,2.065210342407226562e-01,2.395132929086685181e-01,3.098383545875549316e-01,2.624606192111968994e-01,3.144447207450866699e-01,2.936351895332336426e-01,3.027773201465606689e-01,3.108565509319305420e-01,2.688273191452026367e-01,2.830736935138702393e-01,2.807536721229553223e-01,3.164326846599578857e-01,2.553844749927520752e-01,2.693629264831542969e-01,2.791727185249328613e-01,2.203918695449829102e-01,2.327267378568649292e-01,1.788584329187870026e-02,-2.446354627609252930e-01,-2.685593366622924805e-01,-2.833719253540039062e-01,-3.159783482551574707e-01,-3.146649301052093506e-01,-2.407927364110946655e-01,-9.892588853836059570e-02,-4.449142515659332275e-02,5.664636939764022827e-02,-1.362388674169778824e-02,2.111077606678009033e-01,2.664872705936431885e-01,3.112780451774597168e-01,3.145495355129241943e-01,2.655990421772003174e-01,3.188960850238800049e-01,3.051701486110687256e-01,2.946483194828033447e-01,2.682595252990722656e-01,2.821133136749267578e-01,1.938340514898300171e-01,1.825106143951416016e-01,2.509213984012603760e-01,2.879392802715301514e-01,2.318284213542938232e-01,2.272312045097351074e-01,1.476660370826721191e-01,-1.463638339191675186e-02,-2.280503809452056885e-01,-2.625607848167419434e-01,-3.048061132431030273e-01,-2.879097759723663330e-01,-2.716529667377471924e-01,-2.479442805051803589e-01,-1.000057756900787354e-01,-4.813583195209503174e-02,-4.071623086929321289e-02,-1.547041088342666626e-01,2.244462072849273682e-01,2.605693340301513672e-01,2.517992854118347168e-01,3.026042878627777100e-01,2.668130993843078613e-01,2.299853414297103882e-01,1.608503907918930054e-01,-2.022112011909484863e-01,-2.593494355678558350e-01,-3.155585527420043945e-01,-2.727150917053222656e-01,-2.667848765850067139e-01,-7.994149625301361084e-02,2.199920266866683960e-01,2.628375291824340820e-01,2.121939212083816528e-01,9.985525906085968018e-02,-1.120378151535987854e-01,-2.915578484535217285e-01,-2.983970940113067627e-01,-3.257593214511871338e-01,-2.883615195751190186e-01,-2.568763792514801025e-01,-2.199934720993041992e-01,-1.038805171847343445e-01,-2.394690178334712982e-02,-9.248895198106765747e-02,-1.554995030164718628e-01,7.318252325057983398e-02,2.359349876642227173e-01,1.860119551420211792e-01,1.895875334739685059e-01,-1.030576825141906738e-01,-2.726462483406066895e-01,-2.720193266868591309e-01,-3.034717738628387451e-01,-3.217483758926391602e-01,-2.692633867263793945e-01,-2.657513022422790527e-01,-2.847983241081237793e-01,1.984159946441650391e-01,2.681411504745483398e-01,2.674218118190765381e-01,2.517946958541870117e-01,1.124975970014929771e-03,-2.304041683673858643e-01,-2.945430576801300049e-01,-3.046105504035949707e-01,-2.704700827598571777e-01,-2.610020935535430908e-01,-3.128204047679901123e-01,-2.324744313955307007e-01,-1.048859059810638428e-01,-6.418517976999282837e-02,-1.164855286478996277e-01,-1.992247253656387329e-01,-1.645338162779808044e-02,-2.795546315610408783e-03,-1.414613425731658936e-01,-2.372810095548629761e-01,-2.588641047477722168e-01,-2.744440436363220215e-01,-2.634341418743133545e-01,-2.797234058380126953e-01,-3.132335841655731201e-01,-3.122431635856628418e-01,-1.981966346502304077e-01,2.410200834274291992e-01,3.151284754276275635e-01,2.798670530319213867e-01,2.706041336059570312e-01,2.289237529039382935e-01,-1.696432530879974365e-01,-2.986161708831787109e-01,-3.187267184257507324e-01,-2.869703173637390137e-01,-2.963194251060485840e-01,-2.883769273757934570e-01,-3.108242452144622803e-01,-2.596208751201629639e-01,-1.050990000367164612e-01,-8.431462198495864868e-02,-1.034515947103500366e-01,-1.540610194206237793e-01,-6.166960671544075012e-02,-1.667680889368057251e-01,-2.382828295230865479e-01,-3.190633654594421387e-01,-2.642616033554077148e-01,-3.068531453609466553e-01,-3.338569402694702148e-01,-3.074414134025573730e-01,-2.964653372764587402e-01,1.798184961080551147e-01,2.882376313209533691e-01,2.572380304336547852e-01,3.200048804283142090e-01,2.802802622318267822e-01,3.020532727241516113e-01,4.792359471321105957e-02,-3.051232099533081055e-01,-2.829181253910064697e-01,-2.874023318290710449e-01,-2.672769129276275635e-01,-3.251637816429138184e-01,-3.258554935455322266e-01,-2.686790227890014648e-01,-2.125636041164398193e-01,-7.323670387268066406e-02,-1.124029792845249176e-02,-1.521316170692443848e-01,-1.990587115287780762e-01,-1.274888962507247925e-01,-2.359964996576309204e-01,-2.666020095348358154e-01,-2.949734330177307129e-01,-3.151006996631622314e-01,-3.294160068035125732e-01,-2.823189795017242432e-01,-2.611787915229797363e-01,2.484474182128906250e-01,3.174522221088409424e-01,2.782101333141326904e-01,2.834865748882293701e-01,2.773987352848052979e-01,3.050116896629333496e-01,2.399095296859741211e-01,-1.267454624176025391e-01,-2.814928293228149414e-01,-2.781076133251190186e-01,-2.752795219421386719e-01,-2.682060897350311279e-01,-3.320516943931579590e-01,-2.767813801765441895e-01,-2.526281177997589111e-01,-1.881256550550460815e-01,-7.428028434514999390e-02,-4.218922555446624756e-02,-8.680862188339233398e-02,-1.660101562738418579e-01,-1.469784229993820190e-01,-2.751647830009460449e-01,-2.661999166011810303e-01,-2.848718464374542236e-01,-3.282708227634429932e-01,-2.968745231628417969e-01,-3.169630765914916992e-01,9.369265288114547729e-02,2.664187252521514893e-01,2.710960805416107178e-01,2.883152663707733154e-01,2.778907418251037598e-01,3.001833856105804443e-01,2.958804965019226074e-01,2.737815082073211670e-01,7.599370181560516357e-02,-2.503234446048736572e-01,-2.570928037166595459e-01,-3.118101656436920166e-01,-2.623408734798431396e-01,-2.748218476772308350e-01,-3.183691203594207764e-01,-2.861312925815582275e-01,-1.852625459432601929e-01,-4.013944044709205627e-02,4.374801181256771088e-03,2.077480591833591461e-02,-6.538271158933639526e-02,-1.112190932035446167e-01,-2.627968192100524902e-01,-3.158187270164489746e-01,-2.778929769992828369e-01,-2.898384928703308105e-01,-3.078995347023010254e-01,-2.704229354858398438e-01,1.365959942340850830e-01,2.638205587863922119e-01,3.147243559360504150e-01,2.757885754108428955e-01,2.656763195991516113e-01,2.429592311382293701e-01,2.421281635761260986e-01,2.805628776550292969e-01,2.765889167785644531e-01,2.598701715469360352e-01,-4.924060776829719543e-02,-2.690545022487640381e-01,-2.830906212329864502e-01,-3.108133971691131592e-01,-2.762447893619537354e-01,-2.885735929012298584e-01,-1.405245512723922729e-01,-5.511540919542312622e-02,-4.520688205957412720e-02,2.208007127046585083e-02,1.144423633813858032e-01,7.450122851878404617e-03,-2.327996343374252319e-01,-3.182246088981628418e-01,-3.251352608203887939e-01,-3.266628384590148926e-01,-3.059068918228149414e-01,-3.026936948299407959e-01,-2.421819716691970825e-01,-6.370013952255249023e-02,-1.023571938276290894e-01,-2.953447401523590088e-01,-2.790258228778839111e-01,-2.670232951641082764e-01,-1.753609627485275269e-01,2.354163229465484619e-01,3.075259029865264893e-01,2.973457574844360352e-01,2.661390006542205811e-01,-8.576296269893646240e-02,-2.617966234683990479e-01,-3.223834335803985596e-01,-3.186658620834350586e-01,-2.606944143772125244e-01,-1.443959027528762817e-01,-1.074457317590713501e-01,-2.090810611844062805e-02,9.123462252318859100e-03,1.494968533515930176e-01,1.582300812005996704e-01,-5.270531773567199707e-02,-2.778560221195220947e-01,-2.648766934871673584e-01,-2.817761301994323730e-01,-2.664211988449096680e-01,-2.746587395668029785e-01,-3.005933463573455811e-01,-2.771404683589935303e-01,-2.893707156181335449e-01,-3.190022110939025879e-01,-2.709761261940002441e-01,-2.947128415107727051e-01,-3.163674473762512207e-01,1.664307713508605957e-01,2.925654947757720947e-01,2.689118683338165283e-01,2.446876764297485352e-01,2.121319025754928589e-01,-1.410219073295593262e-01,-2.623297572135925293e-01,-3.204030692577362061e-01,-2.647697031497955322e-01,-1.837645471096038818e-01,-7.414247840642929077e-02,-3.018451621755957603e-03,7.224225997924804688e-02,1.650707572698593140e-01,2.101263552904129028e-01,1.335921883583068848e-01,-2.296276539564132690e-01,-3.065676093101501465e-01,-2.628596723079681396e-01,-2.790259718894958496e-01,-2.798952162265777588e-01,-2.786177694797515869e-01,-3.330912888050079346e-01,-3.283685147762298584e-01,-2.966623306274414062e-01,-2.817866504192352295e-01,-2.993853688240051270e-01,-2.765124142169952393e-01,1.681879162788391113e-01,2.756274044513702393e-01,2.749272584915161133e-01,2.985145151615142822e-01,2.329100072383880615e-01,4.799229651689529419e-02,-2.329631745815277100e-01,-2.845366299152374268e-01,-2.557262182235717773e-01,-2.433766126632690430e-01,-7.492874562740325928e-02,-4.084839299321174622e-02,1.909778639674186707e-02,2.341137975454330444e-01,2.578278183937072754e-01,2.169308513402938843e-01,1.207077316939830780e-02,-2.238864451646804810e-01,-2.834381461143493652e-01,-2.995945513248443604e-01,-3.149630725383758545e-01,-3.091180026531219482e-01,-3.186865448951721191e-01,-2.671471834182739258e-01,-2.826062440872192383e-01,-3.058132231235504150e-01,-2.857271134853363037e-01,-2.523478865623474121e-01,2.582419812679290771e-01,2.504599988460540771e-01,3.143234550952911377e-01,3.064383864402770996e-01,2.614906728267669678e-01,1.303970515727996826e-01,-1.577442139387130737e-01,-3.126194477081298828e-01,-2.598643004894256592e-01,-2.186814397573471069e-01,-5.248361453413963318e-02,-2.155312709510326385e-02,8.509457856416702271e-02,2.419843971729278564e-01,3.074154257774353027e-01,3.012818396091461182e-01,2.960482835769653320e-01,1.992794275283813477e-01,-8.604490756988525391e-02,-2.733214795589447021e-01,-3.231135308742523193e-01,-3.146799504756927490e-01,-2.798939347267150879e-01,-3.061760663986206055e-01,-2.735452353954315186e-01,-2.632838785648345947e-01,-2.854818105697631836e-01,-7.856503874063491821e-02,2.493091821670532227e-01,2.593139708042144775e-01,2.946270406246185303e-01,2.909784317016601562e-01,2.485497146844863892e-01,2.087287604808807373e-01,-1.935759037733078003e-01,-3.116021156311035156e-01,-2.614907920360565186e-01,-2.276891320943832397e-01,-8.758112043142318726e-02,1.687684655189514160e-02,4.282008484005928040e-02,2.408570051193237305e-01,2.869100570678710938e-01,2.657173871994018555e-01,2.880424261093139648e-01,2.548527121543884277e-01,2.491099238395690918e-01,1.738908737897872925e-01,-1.364145576953887939e-01,-2.465556263923645020e-01,-3.241901993751525879e-01,-2.796342372894287109e-01,-2.915128469467163086e-01,-2.747305929660797119e-01,-5.910836532711982727e-02,2.783249318599700928e-01,2.586210370063781738e-01,2.719986140727996826e-01,2.966997027397155762e-01,2.965404689311981201e-01,2.605528831481933594e-01,9.421568363904953003e-02,-2.076694816350936890e-01,-2.608917653560638428e-01,-2.702509760856628418e-01,-1.438563317060470581e-01,-4.325152933597564697e-02,1.337721664458513260e-02,1.040010675787925720e-01,2.458561956882476807e-01,2.996279895305633545e-01,2.601585090160369873e-01,2.890715003013610840e-01,2.605953514575958252e-01,2.903049886226654053e-01,2.988301217555999756e-01,2.941493391990661621e-01,2.766655683517456055e-01,1.344539672136306763e-01,7.444592565298080444e-02,9.192245453596115112e-02,1.976621448993682861e-01,3.035008609294891357e-01,3.113447725772857666e-01,2.649652063846588135e-01,2.511914968490600586e-01,3.045397400856018066e-01,2.589271068572998047e-01,2.019714415073394775e-01,-7.001484930515289307e-02,-2.316908240318298340e-01,-2.752563059329986572e-01,-2.655003964900970459e-01,-1.553174108266830444e-01,-9.636910632252693176e-03,1.946071907877922058e-02,1.647247187793254852e-02,2.001395672559738159e-01,2.667007744312286377e-01,3.091523051261901855e-01,3.119753301143646240e-01,3.026596605777740479e-01,3.102476298809051514e-01,2.964650094509124756e-01,2.829847931861877441e-01,2.642863988876342773e-01,2.950080335140228271e-01,3.157377839088439941e-01,3.152497112751007080e-01,2.579362690448760986e-01,2.922224402427673340e-01,2.965989410877227783e-01,2.736932039260864258e-01,2.569998502731323242e-01,2.991635203361511230e-01,2.340508252382278442e-01,1.642929273657500744e-03,-2.342490851879119873e-01,-2.769273519515991211e-01,-2.799562513828277588e-01,-2.296290397644042969e-01,-1.110290139913558960e-01,-2.771709300577640533e-02,-1.462478749454021454e-02,2.906635589897632599e-02,1.478729397058486938e-01,2.005739510059356689e-01,2.393275201320648193e-01,2.595821321010589600e-01,3.114745914936065674e-01,2.925424277782440186e-01,2.994363903999328613e-01,3.005163669586181641e-01,3.040974438190460205e-01,3.013797402381896973e-01,2.695001363754272461e-01,2.960601150989532471e-01,2.995111942291259766e-01,2.885091304779052734e-01,2.555826306343078613e-01,2.481736689805984497e-01,2.152639776468276978e-01,1.927880793809890747e-01,-8.222971856594085693e-02,-2.438644170761108398e-01,-2.565244436264038086e-01,-2.448911517858505249e-01,-1.872380822896957397e-01,-1.538611203432083130e-01,-2.195929735898971558e-02,1.387462113052606583e-02,-1.280142646282911301e-02,1.641176454722881317e-02,7.690989226102828979e-02,1.966150701045989990e-01,2.236033380031585693e-01,2.376688271760940552e-01,2.854236960411071777e-01,2.613048851490020752e-01,2.893349826335906982e-01,2.693319022655487061e-01,2.755768001079559326e-01,2.861613035202026367e-01,2.722558975219726562e-01,2.355063855648040771e-01,2.045933604240417480e-01,1.891045570373535156e-01,1.195854023098945618e-01,-4.835934564471244812e-02,-1.576450616121292114e-01,-2.388398796319961548e-01,-2.593622505664825439e-01,-2.114270180463790894e-01,-2.666712105274200439e-01,-2.145312279462814331e-01,-1.978127956390380859e-01,-1.227438449859619141e-01,-5.220211297273635864e-02,-5.872760812053456903e-05,2.255772799253463745e-02,7.168812677264213562e-03,7.103855162858963013e-02,1.600635424256324768e-02,1.047546416521072388e-01,4.667790979146957397e-02,5.656993016600608826e-02,-4.271308332681655884e-02,-1.299626380205154419e-01,-1.675086468458175659e-01,-2.216044962406158447e-01,-2.487418353557586670e-01,-3.023981153964996338e-01,-2.848695814609527588e-01,-2.709397673606872559e-01,-2.559075951576232910e-01,-2.875843942165374756e-01,-3.152815103530883789e-01,-2.967285513877868652e-01,-2.547058761119842529e-01,-2.776747345924377441e-01,-2.450516819953918457e-01,-2.184360921382904053e-01,-1.634083539247512817e-01,-1.142059639096260071e-01,-4.845364391803741455e-02,2.622567350044846535e-03,3.293361049145460129e-03,7.807374466210603714e-03,9.015713818371295929e-03,-2.831089682877063751e-02,-4.435837641358375549e-02,-1.406218707561492920e-01,-1.853813529014587402e-01,-2.362748980522155762e-01,-2.589872777462005615e-01,-3.039882481098175049e-01,-3.222115933895111084e-01,-2.764239907264709473e-01,-2.852362394332885742e-01,-2.787567079067230225e-01,-3.167809247970581055e-01,-2.677047252655029297e-01,-2.953790128231048584e-01,-3.145144879817962646e-01,-2.834846973419189453e-01,-2.750151753425598145e-01,-2.691766023635864258e-01,-1.654803603887557983e-01,-1.331289410591125488e-01,-1.341118514537811279e-01,-1.086691319942474365e-01,-1.800713501870632172e-02,-1.796598359942436218e-02,-6.825196091085672379e-03,-2.344443649053573608e-02,-5.450304131954908371e-03,3.167729079723358154e-02,6.234279833734035492e-03,-1.718704774975776672e-02,-3.886348009109497070e-02,-8.632705360651016235e-02,-1.387585699558258057e-01,-1.521780490875244141e-01,-1.597595065832138062e-01,-1.746151149272918701e-01,-2.686827778816223145e-01,-2.812161147594451904e-01,-2.197496592998504639e-01,-2.738794088363647461e-01,-2.642400264739990234e-01,-2.722430825233459473e-01,-2.773599922657012939e-01,-2.404789179563522339e-01,-2.106823921203613281e-01,-1.797568351030349731e-01,-1.402883976697921753e-01,-9.294736385345458984e-02,-3.786016628146171570e-02,2.057820325717329979e-03,6.073083262890577316e-03,-2.908320724964141846e-02,2.318935468792915344e-02,-1.299081556499004364e-02
